<?xml version="1.0"?>
<opencv_storage>
<stage14>
  <maxWeakCount>35</maxWeakCount>
  <stageThreshold>-8.0257230997085571e-01</stageThreshold>
  <weakClassifiers>
    <_>
      <internalNodes>
        0 -1 61939 8.8279054034501314e-04</internalNodes>
      <leafValues>
        -2.3752968758344650e-02 4.9515607953071594e-01</leafValues></_>
    <_>
      <internalNodes>
        0 -1 39993 8.6332540959119797e-03</internalNodes>
      <leafValues>
        -1.9149191677570343e-01 3.0338671803474426e-01</leafValues></_>
    <_>
      <internalNodes>
        0 -1 58431 3.3911151695065200e-04</internalNodes>
      <leafValues>
        1.2537173926830292e-01 -4.5223543047904968e-01</leafValues></_>
    <_>
      <internalNodes>
        0 -1 49918 -7.1669754106551409e-04</internalNodes>
      <leafValues>
        2.5083923339843750e-01 -2.1948996186256409e-01</leafValues></_>
    <_>
      <internalNodes>
        0 -1 51030 2.9024133458733559e-02</internalNodes>
      <leafValues>
        8.2611322402954102e-02 -6.4983475208282471e-01</leafValues></_>
    <_>
      <internalNodes>
        0 -1 53459 -4.1178949177265167e-03</internalNodes>
      <leafValues>
        3.2959687709808350e-01 -1.5669232606887817e-01</leafValues></_>
    <_>
      <internalNodes>
        0 -1 45221 -1.8880396382883191e-03</internalNodes>
      <leafValues>
        2.5618308782577515e-01 -2.1115911006927490e-01</leafValues></_>
    <_>
      <internalNodes>
        0 -1 71143 4.6795644448138773e-04</internalNodes>
      <leafValues>
        -2.2357316315174103e-01 2.7119860053062439e-01</leafValues></_>
    <_>
      <internalNodes>
        0 -1 68522 -2.5352972443215549e-04</internalNodes>
      <leafValues>
        -4.3380486965179443e-01 9.7788885235786438e-02</leafValues></_>
    <_>
      <internalNodes>
        0 -1 71041 -1.7605780158191919e-04</internalNodes>
      <leafValues>
        -2.9348930716514587e-01 1.8064486980438232e-01</leafValues></_>
    <_>
      <internalNodes>
        0 -1 61159 -6.2881618738174438e-02</internalNodes>
      <leafValues>
        4.0755325555801392e-01 -1.3704033195972443e-01</leafValues></_>
    <_>
      <internalNodes>
        0 -1 60877 1.0027445852756500e-02</internalNodes>
      <leafValues>
        -8.5556834936141968e-02 5.4771167039871216e-01</leafValues></_>
    <_>
      <internalNodes>
        0 -1 64531 -5.4525566520169377e-04</internalNodes>
      <leafValues>
        2.6619496941566467e-01 -1.6731601953506470e-01</leafValues></_>
    <_>
      <internalNodes>
        0 -1 58429 -2.5385725894011557e-04</internalNodes>
      <leafValues>
        -4.8640319705009460e-01 9.0287953615188599e-02</leafValues></_>
    <_>
      <internalNodes>
        0 -1 58556 5.7825131807476282e-04</internalNodes>
      <leafValues>
        -1.4557248353958130e-01 3.8293924927711487e-01</leafValues></_>
    <_>
      <internalNodes>
        0 -1 4956 4.0891595184803009e-02</internalNodes>
      <leafValues>
        -1.4659491181373596e-01 3.2616949081420898e-01</leafValues></_>
    <_>
      <internalNodes>
        0 -1 6135 -2.5352284312248230e-02</internalNodes>
      <leafValues>
        4.3116211891174316e-01 -9.5632590353488922e-02</leafValues></_>
    <_>
      <internalNodes>
        0 -1 70336 4.6917551662772894e-04</internalNodes>
      <leafValues>
        -1.7210544645786285e-01 2.5083789229393005e-01</leafValues></_>
    <_>
      <internalNodes>
        0 -1 72818 4.1354785207659006e-04</internalNodes>
      <leafValues>
        -1.4764949679374695e-01 2.9474651813507080e-01</leafValues></_>
    <_>
      <internalNodes>
        0 -1 55012 -9.5827574841678143e-04</internalNodes>
      <leafValues>
        3.8069412112236023e-01 -1.1510940641164780e-01</leafValues></_>
    <_>
      <internalNodes>
        0 -1 26824 7.1222074329853058e-03</internalNodes>
      <leafValues>
        7.9139947891235352e-02 -5.7411748170852661e-01</leafValues></_>
    <_>
      <internalNodes>
        0 -1 48224 -1.9583841785788536e-03</internalNodes>
      <leafValues>
        2.0738349854946136e-01 -1.9753457605838776e-01</leafValues></_>
    <_>
      <internalNodes>
        0 -1 68126 1.7068378627300262e-02</internalNodes>
      <leafValues>
        5.8553803712129593e-02 -7.8595376014709473e-01</leafValues></_>
    <_>
      <internalNodes>
        0 -1 50482 -5.4744532098993659e-04</internalNodes>
      <leafValues>
        2.2458793222904205e-01 -1.8688195943832397e-01</leafValues></_>
    <_>
      <internalNodes>
        0 -1 55726 -8.3475071005523205e-04</internalNodes>
      <leafValues>
        -6.7197370529174805e-01 6.0799814760684967e-02</leafValues></_>
    <_>
      <internalNodes>
        0 -1 58598 1.4076604275032878e-03</internalNodes>
      <leafValues>
        -1.2506371736526489e-01 3.6212259531021118e-01</leafValues></_>
    <_>
      <internalNodes>
        0 -1 58664 -7.7800021972507238e-04</internalNodes>
      <leafValues>
        2.0988096296787262e-01 -2.1595685184001923e-01</leafValues></_>
    <_>
      <internalNodes>
        0 -1 59652 -4.7039898345246911e-04</internalNodes>
      <leafValues>
        -6.6066539287567139e-01 5.8792904019355774e-02</leafValues></_>
    <_>
      <internalNodes>
        0 -1 46932 1.4153186930343509e-03</internalNodes>
      <leafValues>
        -1.8238899111747742e-01 2.4625499546527863e-01</leafValues></_>
    <_>
      <internalNodes>
        0 -1 40507 -8.1210173666477203e-03</internalNodes>
      <leafValues>
        3.6087068915367126e-01 -1.2005621194839478e-01</leafValues></_>
    <_>
      <internalNodes>
        0 -1 35931 -3.7120177876204252e-04</internalNodes>
      <leafValues>
        2.0392838120460510e-01 -2.1678729355335236e-01</leafValues></_>
    <_>
      <internalNodes>
        0 -1 24339 9.8412223160266876e-02</internalNodes>
      <leafValues>
        1.0216096043586731e-01 -4.2255520820617676e-01</leafValues></_>
    <_>
      <internalNodes>
        0 -1 33094 -4.4399686157703400e-02</internalNodes>
      <leafValues>
        -6.4366006851196289e-01 7.9685710370540619e-02</leafValues></_>
    <_>
      <internalNodes>
        0 -1 39001 6.3403910025954247e-03</internalNodes>
      <leafValues>
        -2.2274231910705566e-01 2.1036826074123383e-01</leafValues></_>
    <_>
      <internalNodes>
        0 -1 41410 4.2197513394057751e-03</internalNodes>
      <leafValues>
        -2.2282713651657104e-01 1.7501857876777649e-01</leafValues></_></weakClassifiers></stage14>
</opencv_storage>
