<?xml version="1.0"?>
<opencv_storage>
<stage1>
  <maxWeakCount>14</maxWeakCount>
  <stageThreshold>-9.0814226865768433e-01</stageThreshold>
  <weakClassifiers>
    <_>
      <internalNodes>
        0 -1 45462 2.3570511490106583e-02</internalNodes>
      <leafValues>
        -3.3205620944499969e-02 8.3950614929199219e-01</leafValues></_>
    <_>
      <internalNodes>
        0 -1 59652 -5.0935102626681328e-04</internalNodes>
      <leafValues>
        -8.2389485836029053e-01 2.7947482466697693e-01</leafValues></_>
    <_>
      <internalNodes>
        0 -1 76170 -1.8297512084245682e-02</internalNodes>
      <leafValues>
        6.2254559993743896e-01 -2.8141504526138306e-01</leafValues></_>
    <_>
      <internalNodes>
        0 -1 61070 7.8095393255352974e-03</internalNodes>
      <leafValues>
        -2.0295891165733337e-01 5.5987852811813354e-01</leafValues></_>
    <_>
      <internalNodes>
        0 -1 56050 2.6225252076983452e-03</internalNodes>
      <leafValues>
        1.3200072944164276e-01 -8.5067677497863770e-01</leafValues></_>
    <_>
      <internalNodes>
        0 -1 45130 -1.3550216332077980e-02</internalNodes>
      <leafValues>
        5.6776368618011475e-01 -2.0997649431228638e-01</leafValues></_>
    <_>
      <internalNodes>
        0 -1 76088 2.2145044058561325e-02</internalNodes>
      <leafValues>
        -1.9427627325057983e-01 5.6368964910507202e-01</leafValues></_>
    <_>
      <internalNodes>
        0 -1 2328 1.0923862457275391e-01</internalNodes>
      <leafValues>
        -1.5035007894039154e-01 5.6363719701766968e-01</leafValues></_>
    <_>
      <internalNodes>
        0 -1 28433 -1.9744336605072021e-02</internalNodes>
      <leafValues>
        5.3731602430343628e-01 -1.8040016293525696e-01</leafValues></_>
    <_>
      <internalNodes>
        0 -1 56050 -3.9866226725280285e-03</internalNodes>
      <leafValues>
        -9.3774390220642090e-01 1.2675097584724426e-01</leafValues></_>
    <_>
      <internalNodes>
        0 -1 47977 4.8266411758959293e-03</internalNodes>
      <leafValues>
        -2.8376635909080505e-01 3.2594728469848633e-01</leafValues></_>
    <_>
      <internalNodes>
        0 -1 59652 2.7694099117070436e-04</internalNodes>
      <leafValues>
        2.2290739417076111e-01 -4.2093935608863831e-01</leafValues></_>
    <_>
      <internalNodes>
        0 -1 8633 1.6128178685903549e-02</internalNodes>
      <leafValues>
        -2.1917568147182465e-01 4.2745843529701233e-01</leafValues></_>
    <_>
      <internalNodes>
        0 -1 35683 -1.5683829784393311e-01</internalNodes>
      <leafValues>
        -7.1967607736587524e-01 1.2038154900074005e-01</leafValues></_></weakClassifiers></stage1>
</opencv_storage>
