<?xml version="1.0"?>
<opencv_storage>
<stage3>
  <maxWeakCount>17</maxWeakCount>
  <stageThreshold>-1.0445889234542847e+00</stageThreshold>
  <weakClassifiers>
    <_>
      <internalNodes>
        0 -1 4964 3.9006337523460388e-02</internalNodes>
      <leafValues>
        -2.6595743838697672e-03 7.5585281848907471e-01</leafValues></_>
    <_>
      <internalNodes>
        0 -1 34664 4.5808378607034683e-02</internalNodes>
      <leafValues>
        -2.2768494486808777e-01 5.2178627252578735e-01</leafValues></_>
    <_>
      <internalNodes>
        0 -1 46872 -6.6237582359462976e-04</internalNodes>
      <leafValues>
        -7.5747662782669067e-01 1.8705803155899048e-01</leafValues></_>
    <_>
      <internalNodes>
        0 -1 53023 -1.4399837702512741e-02</internalNodes>
      <leafValues>
        3.4509393572807312e-01 -3.4524586796760559e-01</leafValues></_>
    <_>
      <internalNodes>
        0 -1 51632 -7.0000073174014688e-04</internalNodes>
      <leafValues>
        -7.1598178148269653e-01 1.5075799822807312e-01</leafValues></_>
    <_>
      <internalNodes>
        0 -1 4450 -1.8546979874372482e-02</internalNodes>
      <leafValues>
        5.8427834510803223e-01 -2.5696358084678650e-01</leafValues></_>
    <_>
      <internalNodes>
        0 -1 54492 -2.0742226392030716e-02</internalNodes>
      <leafValues>
        4.8658648133277893e-01 -2.0678566396236420e-01</leafValues></_>
    <_>
      <internalNodes>
        0 -1 58366 -1.1361353099346161e-03</internalNodes>
      <leafValues>
        -4.7828954458236694e-01 1.7859244346618652e-01</leafValues></_>
    <_>
      <internalNodes>
        0 -1 62245 1.9425067875999957e-04</internalNodes>
      <leafValues>
        1.7115598917007446e-01 -5.4728573560714722e-01</leafValues></_>
    <_>
      <internalNodes>
        0 -1 52691 9.0642378199845552e-04</internalNodes>
      <leafValues>
        -3.3262252807617188e-01 3.0579614639282227e-01</leafValues></_>
    <_>
      <internalNodes>
        0 -1 64576 3.1714309006929398e-03</internalNodes>
      <leafValues>
        -1.8031419813632965e-01 4.8087623715400696e-01</leafValues></_>
    <_>
      <internalNodes>
        0 -1 48221 6.5676652593538165e-04</internalNodes>
      <leafValues>
        -2.7091485261917114e-01 3.2516291737556458e-01</leafValues></_>
    <_>
      <internalNodes>
        0 -1 55726 -7.1694422513246536e-04</internalNodes>
      <leafValues>
        -6.7526167631149292e-01 1.4045728743076324e-01</leafValues></_>
    <_>
      <internalNodes>
        0 -1 76219 3.7807947956025600e-03</internalNodes>
      <leafValues>
        -1.9594015181064606e-01 4.3044421076774597e-01</leafValues></_>
    <_>
      <internalNodes>
        0 -1 78120 9.1824335977435112e-03</internalNodes>
      <leafValues>
        -1.3232162594795227e-01 6.5805566310882568e-01</leafValues></_>
    <_>
      <internalNodes>
        0 -1 33878 1.4619545079767704e-02</internalNodes>
      <leafValues>
        1.3900539278984070e-01 -6.9282555580139160e-01</leafValues></_>
    <_>
      <internalNodes>
        0 -1 67961 2.3440588265657425e-03</internalNodes>
      <leafValues>
        -1.7154835164546967e-01 5.3559124469757080e-01</leafValues></_></weakClassifiers></stage3>
</opencv_storage>
